digraph Tree {
node [shape=box] ;
0 [label="E <= 0.5\ngini = 0.6064\nsamples = 29\nvalue = [9, 15, 5]\nclass = APF"] ;
1 [label="A <= 0.5\ngini = 0.2449\nsamples = 14\nvalue = [0, 12, 2]\nclass = APF"] ;
0 -> 1 [labeldistance=2.5, labelangle=45, headlabel="True"] ;
2 [label="gini = 0.5\nsamples = 4\nvalue = [0, 2, 2]\nclass = APF"] ;
1 -> 2 ;
3 [label="gini = 0.0\nsamples = 10\nvalue = [0, 10, 0]\nclass = APF"] ;
1 -> 3 ;
4 [label="A <= 0.5\ngini = 0.56\nsamples = 15\nvalue = [9, 3, 3]\nclass = BPF"] ;
0 -> 4 [labeldistance=2.5, labelangle=-45, headlabel="False"] ;
5 [label="gini = 0.5\nsamples = 6\nvalue = [0, 3, 3]\nclass = APF"] ;
4 -> 5 ;
6 [label="gini = 0.0\nsamples = 9\nvalue = [9, 0, 0]\nclass = BPF"] ;
4 -> 6 ;
}